{
  "inputSize": 5,
  "outputSize": 1,
  "layers": [
    {
      "type": "LSTMLayer",
      "inputSize": 5,
      "outputSize": 5,
      "blocks": [
        {
          "points": [
            {
              "weights": [
                -0.9348744092897525,
                -2.159456539048941,
                1.2027097671931537,
                -1.5665954167884557,
                1.3420020102291925,
                0.5811176530576967
              ],
              "bias": 0.6445265687102645
            },
            {
              "weights": [
                -0.20101800964411382,
                0.9525067408143768,
                -0.5844500546326605,
                -0.7655888416161568,
                -0.7339607695802317,
                -0.6668520991056649
              ],
              "bias": 0.9304800316543833
            },
            {
              "weights": [
                -2.085468052217233,
                -3.4282542856645355,
                -0.1060524668784113,
                1.7572589750147563,
                0.1821663375851661,
                -1.3414792148088128
              ],
              "bias": 0.47391544614976966
            },
            {
              "weights": [
                -0.8953961276379216,
                0.0947746619743502,
                -2.304522361621104,
                1.4205824415457413,
                0.8546652401272008,
                -0.5585259694195341
              ],
              "bias": 0.7624622099136016
            }
          ]
        },
        {
          "points": [
            {
              "weights": [
                -0.9060199506747726,
                1.0187224986793744,
                0.1817369711975549,
                0.8063692445345141,
                -0.8068901031942993,
                1.113486874182504
              ],
              "bias": -1.7975622499988275
            },
            {
              "weights": [
                0.31614402250289886,
                0.2286718989045032,
                -0.45854243713543497,
                0.6474410146079976,
                -0.863985130427095,
                -1.7795079380428063
              ],
              "bias": -0.9255599653887506
            },
            {
              "weights": [
                1.6403010502506497,
                0.6811877991765569,
                0.7784668620358475,
                1.4138208621668635,
                -0.48116912316038185,
                -0.6205476160594094
              ],
              "bias": -0.5816001046638309
            },
            {
              "weights": [
                1.017155104481296,
                -0.9689890881204903,
                -0.08086173990084128,
                -0.5021844729974164,
                -0.6502421689132357,
                -1.6753084545344592
              ],
              "bias": -1.6164656109834572
            }
          ]
        },
        {
          "points": [
            {
              "weights": [
                -0.9257672458040358,
                0.01278473357921267,
                -0.026910699561928958,
                1.5485413902925314,
                1.3933142329996404,
                0.2101820034791555
              ],
              "bias": 0.26964517594205956
            },
            {
              "weights": [
                2.2623822022507407,
                -0.9200238584416596,
                -0.2953531923321587,
                -0.8118255397778726,
                -0.5195356434418865,
                0.7183485196396091
              ],
              "bias": 0.7617219330320517
            },
            {
              "weights": [
                0.39026559164586744,
                -0.1898807637174632,
                1.399617181722964,
                0.9844503495691896,
                -0.2207860951083916,
                0.9634606036587805
              ],
              "bias": 0.6318208403175609
            },
            {
              "weights": [
                0.6462962910028326,
                1.366749347589118,
                0.38219566254261395,
                0.05384347261078609,
                0.2431109123669893,
                -1.8565578657713482
              ],
              "bias": -0.7735653163236778
            }
          ]
        },
        {
          "points": [
            {
              "weights": [
                1.317676044823224,
                -0.39578915826231453,
                -2.8420866956913957,
                1.5942851939016218,
                -1.1999328157305593,
                -0.8583104446650454
              ],
              "bias": 1.1551593784018737
            },
            {
              "weights": [
                -0.7425465741655648,
                -0.4507218393330783,
                0.11112335157345782,
                0.38662126677937136,
                -0.3061846010479173,
                0.3792823637307067
              ],
              "bias": -0.4191488126667386
            },
            {
              "weights": [
                -1.0953241949972723,
                1.2733410009316548,
                0.1323862652954723,
                0.006224572337113876,
                -1.1577890185635238,
                -1.285412616093357
              ],
              "bias": 0.7480855703005229
            },
            {
              "weights": [
                -2.68192667310788,
                0.4476076220321211,
                0.7669822230496453,
                -1.210775114057009,
                -0.7343275644326059,
                -0.5138322290040267
              ],
              "bias": -0.4665106647199753
            }
          ]
        },
        {
          "points": [
            {
              "weights": [
                1.2068498934127025,
                -1.1022917502691203,
                0.9303551803709535,
                0.02634277985490291,
                -0.03566134454033065,
                -0.9555090593576478
              ],
              "bias": -0.6070153088818482
            },
            {
              "weights": [
                -0.7014582604653272,
                -1.654655446421788,
                0.17418827626231306,
                -0.04391068778062193,
                0.6805573492699419,
                0.9671384742517921
              ],
              "bias": -1.8776731583258668
            },
            {
              "weights": [
                -0.19401308589419286,
                -0.12154035180344148,
                0.17371428629093938,
                0.8987679944599657,
                1.4930176012072573,
                1.1399200464353192
              ],
              "bias": 0.368365422104625
            },
            {
              "weights": [
                -0.08926891135278231,
                -1.4602332396040183,
                -0.6190412551044295,
                0.09547769383461586,
                0.08534543153642475,
                2.1340030187639076
              ],
              "bias": -0.3970511610763998
            }
          ]
        }
      ]
    },
    {
      "type": "LSTMLayer",
      "inputSize": 5,
      "outputSize": 5,
      "blocks": [
        {
          "points": [
            {
              "weights": [
                -2.313821866464124,
                -1.4829052485525407,
                -0.5217618150398725,
                -0.2423590996633877,
                -0.9705962251587333,
                0.036008455796637195
              ],
              "bias": 0.16565955351535577
            },
            {
              "weights": [
                -0.9884408664998788,
                -0.8291728509659173,
                0.6911421295791886,
                -0.9620798708703202,
                -0.23216674824657269,
                1.2099136430790494
              ],
              "bias": 0.2855568336005957
            },
            {
              "weights": [
                0.1268695972506972,
                -0.7744508845963379,
                2.328801365629879,
                -1.2618565412207887,
                1.2462976730372,
                -0.43930446485959596
              ],
              "bias": -0.221104211206117
            },
            {
              "weights": [
                -0.9588337180551816,
                -0.30295131778704587,
                1.4743256540021412,
                -0.9898486849928544,
                1.1584128049547813,
                -1.4034152781543365
              ],
              "bias": 0.5924784253850376
            }
          ]
        },
        {
          "points": [
            {
              "weights": [
                0.6817710651980392,
                -0.47964062598920465,
                0.21092373289327482,
                -1.617808627115221,
                2.061087481877484,
                -1.2992745628540963
              ],
              "bias": 1.1845234595472904
            },
            {
              "weights": [
                0.32102651689604045,
                1.1485456204517683,
                0.6857600449199646,
                -0.16912063487485,
                -1.5181675796787775,
                1.3375655607371741
              ],
              "bias": -0.9701445631329584
            },
            {
              "weights": [
                0.692589872086955,
                1.731529090021398,
                1.833399243150642,
                0.26063870269404515,
                0.6907498915548229,
                -1.127642103104351
              ],
              "bias": -0.6372589863601177
            },
            {
              "weights": [
                -0.023881605214178495,
                2.1848012056451407,
                -0.677168492202017,
                -0.7654096548574525,
                1.382425873775451,
                1.7471570189261434
              ],
              "bias": -0.6797727997530602
            }
          ]
        },
        {
          "points": [
            {
              "weights": [
                0.4060416518349498,
                -0.24799072591146576,
                0.7803437844856626,
                -2.356986063668439,
                1.13829300354023,
                0.38329105460901614
              ],
              "bias": 1.2313194215002237
            },
            {
              "weights": [
                -2.5591916695813453,
                1.2338871763296844,
                -0.9213825648734391,
                0.16728214216811557,
                -0.8963722751469306,
                -0.3107636513627671
              ],
              "bias": -0.0713941923688769
            },
            {
              "weights": [
                -0.6051837427625033,
                -0.17126542875587314,
                2.7443569025189976,
                0.6156264942335662,
                0.4632707196776462,
                1.3202075767447308
              ],
              "bias": -1.229335079493042
            },
            {
              "weights": [
                0.9902379115358448,
                1.5491294413961167,
                -0.22517365347293872,
                -0.3474253064207904,
                -0.8653976035721364,
                -0.23246772013525757
              ],
              "bias": -0.7900869921889103
            }
          ]
        },
        {
          "points": [
            {
              "weights": [
                2.3956739335659085,
                -0.5796048390329163,
                -0.5363378546654914,
                -0.501357168121969,
                0.8636526486195754,
                -0.5947199600755305
              ],
              "bias": -0.18288962976979817
            },
            {
              "weights": [
                1.0023816268059105,
                -0.12351570860926649,
                2.3722020754620003,
                0.4222493163034898,
                0.521304064301565,
                -0.9635419262594369
              ],
              "bias": 0.4243781767781322
            },
            {
              "weights": [
                0.7966383658456881,
                0.3117740294640945,
                0.6247293477113334,
                -0.7082391206859582,
                0.7015934629905729,
                1.587941229873636
              ],
              "bias": -0.38637345277065055
            },
            {
              "weights": [
                0.5258408471951779,
                -0.7994394547852257,
                1.957037241384502,
                -0.4724548827101599,
                -0.9672907298628083,
                -1.3358378481932554
              ],
              "bias": -0.5985370134154125
            }
          ]
        },
        {
          "points": [
            {
              "weights": [
                0.4320929205965679,
                0.2470436901414693,
                2.2003119359317616,
                -1.325697543663682,
                -0.07940147398668052,
                1.2722758448012668
              ],
              "bias": -1.2490012239157209
            },
            {
              "weights": [
                -1.6321581207280795,
                0.2537258026791807,
                0.8661955112257782,
                -1.833023399650058,
                -2.2535899395035344,
                0.9332814582980902
              ],
              "bias": -1.274364561243273
            },
            {
              "weights": [
                -0.6884977476272693,
                -0.5105393298655505,
                -1.0825757747774898,
                0.11393813890851573,
                -0.2000496037729308,
                0.22134381967914468
              ],
              "bias": -0.3488776762677839
            },
            {
              "weights": [
                1.0292799481798172,
                -1.0573732147063613,
                0.4473442360506676,
                -0.9360953090219879,
                -0.6994774808731055,
                -0.6113094282522753
              ],
              "bias": 1.906494368644184
            }
          ]
        }
      ]
    },
    {
      "type": "LSTMLayer",
      "inputSize": 5,
      "outputSize": 5,
      "blocks": [
        {
          "points": [
            {
              "weights": [
                -0.0571922532981958,
                -0.3764024819572171,
                -0.9921827345159603,
                0.696325410663619,
                0.4382839210266179,
                -0.10299334546583246
              ],
              "bias": -1.0094023868281834
            },
            {
              "weights": [
                0.32814230998503724,
                -1.731611557192819,
                -0.9020631712536108,
                0.7226252120767139,
                0.1561467751291603,
                0.7869559721207837
              ],
              "bias": -0.9634616753065826
            },
            {
              "weights": [
                -0.14621501362104286,
                0.3571622666911469,
                -0.4237554824933437,
                0.6287207360761039,
                -0.8349942329449834,
                -0.20692094856713378
              ],
              "bias": -1.0263250797484749
            },
            {
              "weights": [
                -0.1826819086591995,
                -0.008526219259026607,
                -0.6783480430722191,
                0.9289878566667007,
                -0.2801863973220253,
                0.7514661102071191
              ],
              "bias": 0.34837442442954325
            }
          ]
        },
        {
          "points": [
            {
              "weights": [
                1.105269680181832,
                0.5808824936370018,
                0.12197501894872942,
                0.030486182932628725,
                0.9145163751561896,
                0.3399096972811606
              ],
              "bias": 0.4948908602029404
            },
            {
              "weights": [
                -1.585407584726409,
                -0.7009420316650664,
                0.1730733075099868,
                0.46431697150475637,
                -0.6923073051981061,
                2.252371336484563
              ],
              "bias": 1.7266252926469956
            },
            {
              "weights": [
                -0.32525309357312754,
                -0.48803999285105354,
                -2.3245565167760467,
                -0.1740118944511612,
                2.3040733215643425,
                2.0831635928633734
              ],
              "bias": -0.7579632785453144
            },
            {
              "weights": [
                1.428416866882268,
                1.305987416291316,
                1.5282264554369904,
                -0.07240150994194297,
                -0.3872856579586463,
                -0.8073645977070064
              ],
              "bias": -0.6173491769804409
            }
          ]
        },
        {
          "points": [
            {
              "weights": [
                1.125582385740004,
                -0.643785465333157,
                -0.6854170925835611,
                -1.2517905712016542,
                1.9863607693546799,
                0.592868275517684
              ],
              "bias": -1.3695199601431796
            },
            {
              "weights": [
                0.46962587251692967,
                -0.0498954025424751,
                -0.06659828132298246,
                -0.462033440586066,
                0.9053444685092104,
                -0.605517629439807
              ],
              "bias": -0.9709512112749841
            },
            {
              "weights": [
                0.8519643220066069,
                -0.5388770797807685,
                0.6806645228729176,
                -0.12156696139521544,
                0.9693347138777302,
                2.1798166008479845
              ],
              "bias": -1.915041431865299
            },
            {
              "weights": [
                -0.6508440622627124,
                0.9356132928117249,
                -1.504736175867964,
                -1.5322448884228197,
                -0.8943486519891148,
                -0.29491608242166134
              ],
              "bias": -0.1852092593017472
            }
          ]
        },
        {
          "points": [
            {
              "weights": [
                1.5061378416331763,
                0.07971157768803991,
                -1.279813737777565,
                0.9232493698197721,
                -0.5274946499496185,
                -0.06283641127465903
              ],
              "bias": -0.5570928695248533
            },
            {
              "weights": [
                0.8065036401522325,
                -0.2563339882185624,
                -1.6281852018313752,
                -1.0438333724812439,
                2.154728838352508,
                -1.1768439836130828
              ],
              "bias": 0.37396198030733724
            },
            {
              "weights": [
                0.5142174002628946,
                -1.0571657220400748,
                -0.197502383844965,
                1.8423251481637084,
                0.8216041462668946,
                -0.4245266804682863
              ],
              "bias": 0.6659028640669777
            },
            {
              "weights": [
                -0.09434609246277323,
                0.055942853089865116,
                -1.3292637650453993,
                1.0753126648118594,
                0.12230542062660302,
                -1.9192569897394247
              ],
              "bias": 0.7461699538870034
            }
          ]
        },
        {
          "points": [
            {
              "weights": [
                -1.1447492433130713,
                0.8477471609644915,
                -0.4446428767956725,
                -0.5329797371526268,
                0.9114388403116946,
                2.0875580676637413
              ],
              "bias": 0.5343289892646601
            },
            {
              "weights": [
                -0.2802806705712743,
                -1.5888926813761088,
                0.9450311172275075,
                -1.1289501398617603,
                0.13367027250631003,
                0.5238847443806893
              ],
              "bias": -0.7317975028383007
            },
            {
              "weights": [
                -1.8697147368548839,
                -0.940464725154918,
                0.18819601479005593,
                0.4949279180551146,
                -2.012426999204058,
                -0.7987536422191563
              ],
              "bias": 1.1831215557588664
            },
            {
              "weights": [
                1.677348824150612,
                0.005973770606937212,
                0.4975258480968307,
                0.8311283369962671,
                -1.6628560187482304,
                -0.8126687333674815
              ],
              "bias": -1.0278024594521944
            }
          ]
        }
      ]
    },
    {
      "type": "DenseLayer",
      "inputSize": 5,
      "outputSize": 1,
      "neurons": [
        {
          "weights": [
            0.5087813959627321,
            -0.1474612726723785,
            0.05882077729872082,
            0.8202394621646923,
            0.8504251890956238
          ],
          "bias": 0.15031604451607278,
          "activationFunction": "",
          "minWeight": -1,
          "maxWeight": 1,
          "minBias": -1,
          "maxBias": 1
        }
      ]
    }
  ],
  "fitness": null
}